<?xml version="1.0" encoding="UTF-8" standalone="yes"?>
<PMML xmlns="http://www.dmg.org/PMML-4_4" xmlns:data="http://jpmml.org/jpmml-model/InlineTable" version="4.4">
	<Header>
		<Application name="JPMML-SkLearn" version="1.6.18"/>
		<Timestamp>2021-06-06T09:31:12Z</Timestamp>
	</Header>
	<MiningBuildTask>
		<Extension>PMMLPipeline(steps=[('mapper', DataFrameMapper(drop_cols=[],
                features=[(['status.of.existing.checking.account'], None),
                          (['credit.history'], None),
                          (['savings.account.and.bonds'], None),
                          (['present.employment.since'], None),
                          (['personal.status.and.sex'], None),
                          (['other.debtors.or.guarantors'], None),
                          (['property'], None),
                          (['other.installment.plans'], None),
                          (['housing'], None), (['job'], None),
                          ([...'], None), (['foreign.worker'], None),
                          (['purpose'], None), (['duration.in.month'], None),
                          (['credit.amount'], None), (['age.in.years'], None),
                          (['present.residence.since'], None),
                          (['number.of.existing.credits.at.this.bank'], None),
                          (['installment.rate.in.percentage.of.disposable.income'],
                           None),
                          (['number.of.people.being.liable.to.provide.maintenance.for'],
                           None)])),
       ('classifier', XGBClassifier(base_score=0.5, booster='gbtree', colsample_bylevel=1,
              colsample_bynode=1, colsample_bytree=1, gamma=0, gpu_id=-1,
              importance_type='gain', interaction_constraints='',
              learning_rate=0.300000012, max_delta_step=0, max_depth=6,
              min_child_weight=1, missing=nan, monotone_constraints='()',
              n_estimators=100, n_jobs=4, num_parallel_tree=1, random_state=88,
              reg_alpha=0, reg_lambda=1, scale_pos_weight=1, subsample=1,
              tree_method='exact', validate_parameters=1, verbosity=None))])</Extension>
	</MiningBuildTask>
	<DataDictionary>
		<DataField name="creditability" optype="categorical" dataType="integer">
			<Value value="0"/>
			<Value value="1"/>
		</DataField>
		<DataField name="status.of.existing.checking.account" optype="continuous" dataType="double"/>
		<DataField name="credit.history" optype="continuous" dataType="double"/>
		<DataField name="savings.account.and.bonds" optype="continuous" dataType="double"/>
		<DataField name="present.employment.since" optype="continuous" dataType="double"/>
		<DataField name="personal.status.and.sex" optype="continuous" dataType="double"/>
		<DataField name="other.debtors.or.guarantors" optype="continuous" dataType="double"/>
		<DataField name="property" optype="continuous" dataType="double"/>
		<DataField name="other.installment.plans" optype="continuous" dataType="double"/>
		<DataField name="housing" optype="continuous" dataType="double"/>
		<DataField name="job" optype="continuous" dataType="double"/>
		<DataField name="telephone" optype="continuous" dataType="double"/>
		<DataField name="foreign.worker" optype="continuous" dataType="double"/>
		<DataField name="purpose" optype="continuous" dataType="double"/>
		<DataField name="duration.in.month" optype="continuous" dataType="double"/>
		<DataField name="credit.amount" optype="continuous" dataType="double"/>
		<DataField name="age.in.years" optype="continuous" dataType="double"/>
		<DataField name="present.residence.since" optype="continuous" dataType="double"/>
		<DataField name="number.of.existing.credits.at.this.bank" optype="continuous" dataType="double"/>
		<DataField name="installment.rate.in.percentage.of.disposable.income" optype="continuous" dataType="double"/>
		<DataField name="number.of.people.being.liable.to.provide.maintenance.for" optype="continuous" dataType="double"/>
	</DataDictionary>
	<TransformationDictionary/>
	<MiningModel functionName="classification" algorithmName="XGBoost (GBTree)" x-mathContext="float">
		<MiningSchema>
			<MiningField name="creditability" usageType="target"/>
			<MiningField name="status.of.existing.checking.account"/>
			<MiningField name="credit.history"/>
			<MiningField name="savings.account.and.bonds"/>
			<MiningField name="present.employment.since"/>
			<MiningField name="personal.status.and.sex"/>
			<MiningField name="other.debtors.or.guarantors"/>
			<MiningField name="property"/>
			<MiningField name="other.installment.plans"/>
			<MiningField name="housing"/>
			<MiningField name="job"/>
			<MiningField name="telephone"/>
			<MiningField name="foreign.worker"/>
			<MiningField name="purpose"/>
			<MiningField name="duration.in.month"/>
			<MiningField name="credit.amount"/>
			<MiningField name="age.in.years"/>
			<MiningField name="present.residence.since"/>
			<MiningField name="number.of.existing.credits.at.this.bank"/>
			<MiningField name="installment.rate.in.percentage.of.disposable.income"/>
			<MiningField name="number.of.people.being.liable.to.provide.maintenance.for"/>
		</MiningSchema>
		<Segmentation multipleModelMethod="modelChain" missingPredictionTreatment="returnMissing">
			<Segment id="1">
				<True/>
				<MiningModel functionName="regression" x-mathContext="float">
					<MiningSchema>
						<MiningField name="status.of.existing.checking.account"/>
						<MiningField name="credit.history"/>
						<MiningField name="savings.account.and.bonds"/>
						<MiningField name="present.employment.since"/>
						<MiningField name="personal.status.and.sex"/>
						<MiningField name="other.debtors.or.guarantors"/>
						<MiningField name="property"/>
						<MiningField name="other.installment.plans"/>
						<MiningField name="housing"/>
						<MiningField name="job"/>
						<MiningField name="telephone"/>
						<MiningField name="foreign.worker"/>
						<MiningField name="purpose"/>
						<MiningField name="duration.in.month"/>
						<MiningField name="credit.amount"/>
						<MiningField name="age.in.years"/>
						<MiningField name="present.residence.since"/>
						<MiningField name="number.of.existing.credits.at.this.bank"/>
						<MiningField name="installment.rate.in.percentage.of.disposable.income"/>
						<MiningField name="number.of.people.being.liable.to.provide.maintenance.for"/>
					</MiningSchema>
					<Output>
						<OutputField name="xgbValue" optype="continuous" dataType="float" isFinalResult="false"/>
					</Output>
					<LocalTransformations>
						<DerivedField name="float(status.of.existing.checking.account)" optype="continuous" dataType="float">
							<FieldRef field="status.of.existing.checking.account"/>
						</DerivedField>
						<DerivedField name="float(credit.history)" optype="continuous" dataType="float">
							<FieldRef field="credit.history"/>
						</DerivedField>
						<DerivedField name="float(savings.account.and.bonds)" optype="continuous" dataType="float">
							<FieldRef field="savings.account.and.bonds"/>
						</DerivedField>
						<DerivedField name="float(present.employment.since)" optype="continuous" dataType="float">
							<FieldRef field="present.employment.since"/>
						</DerivedField>
						<DerivedField name="float(personal.status.and.sex)" optype="continuous" dataType="float">
							<FieldRef field="personal.status.and.sex"/>
						</DerivedField>
						<DerivedField name="float(other.debtors.or.guarantors)" optype="continuous" dataType="float">
							<FieldRef field="other.debtors.or.guarantors"/>
						</DerivedField>
						<DerivedField name="float(property)" optype="continuous" dataType="float">
							<FieldRef field="property"/>
						</DerivedField>
						<DerivedField name="float(other.installment.plans)" optype="continuous" dataType="float">
							<FieldRef field="other.installment.plans"/>
						</DerivedField>
						<DerivedField name="float(housing)" optype="continuous" dataType="float">
							<FieldRef field="housing"/>
						</DerivedField>
						<DerivedField name="float(job)" optype="continuous" dataType="float">
							<FieldRef field="job"/>
						</DerivedField>
						<DerivedField name="float(telephone)" optype="continuous" dataType="float">
							<FieldRef field="telephone"/>
						</DerivedField>
						<DerivedField name="float(foreign.worker)" optype="continuous" dataType="float">
							<FieldRef field="foreign.worker"/>
						</DerivedField>
						<DerivedField name="float(purpose)" optype="continuous" dataType="float">
							<FieldRef field="purpose"/>
						</DerivedField>
						<DerivedField name="float(duration.in.month)" optype="continuous" dataType="float">
							<FieldRef field="duration.in.month"/>
						</DerivedField>
						<DerivedField name="float(credit.amount)" optype="continuous" dataType="float">
							<FieldRef field="credit.amount"/>
						</DerivedField>
						<DerivedField name="float(age.in.years)" optype="continuous" dataType="float">
							<FieldRef field="age.in.years"/>
						</DerivedField>
						<DerivedField name="float(present.residence.since)" optype="continuous" dataType="float">
							<FieldRef field="present.residence.since"/>
						</DerivedField>
						<DerivedField name="float(number.of.existing.credits.at.this.bank)" optype="continuous" dataType="float">
							<FieldRef field="number.of.existing.credits.at.this.bank"/>
						</DerivedField>
						<DerivedField name="float(installment.rate.in.percentage.of.disposable.income)" optype="continuous" dataType="float">
							<FieldRef field="installment.rate.in.percentage.of.disposable.income"/>
						</DerivedField>
						<DerivedField name="float(number.of.people.being.liable.to.provide.maintenance.for)" optype="continuous" dataType="float">
							<FieldRef field="number.of.people.being.liable.to.provide.maintenance.for"/>
						</DerivedField>
					</LocalTransformations>
					<Segmentation multipleModelMethod="sum">
						<Segment id="1">
							<True/>
							<TreeModel functionName="regression" noTrueChildStrategy="returnLastPrediction" x-mathContext="float">
								<MiningSchema>
									<MiningField name="float(status.of.existing.checking.account)"/>
									<MiningField name="float(credit.history)"/>
									<MiningField name="float(savings.account.and.bonds)"/>
									<MiningField name="float(present.employment.since)"/>
									<MiningField name="float(personal.status.and.sex)"/>
									<MiningField name="float(other.installment.plans)"/>
									<MiningField name="float(housing)"/>
									<MiningField name="float(job)"/>
									<MiningField name="float(purpose)"/>
									<MiningField name="float(duration.in.month)"/>
									<MiningField name="float(credit.amount)"/>
									<MiningField name="float(age.in.years)"/>
									<MiningField name="float(present.residence.since)"/>
									<MiningField name="float(installment.rate.in.percentage.of.disposable.income)"/>
								</MiningSchema>
								<Node score="0.44000003">
									<True/>
									<Node score="-0.33333337">
										<SimplePredicate field="float(status.of.existing.checking.account)" operator="greaterOrEqual" value="0.8333334"/>
										<Node score="-0.15">
											<SimplePredicate field="float(other.installment.plans)" operator="greaterOrEqual" value="0.25"/>
											<Node score="-0.54430383">
												<SimplePredicate field="float(age.in.years)" operator="greaterOrEqual" value="0.0625"/>
												<Node score="-0.05454546">
													<SimplePredicate field="float(credit.amount)" operator="greaterOrEqual" value="0.5127655"/>
												</Node>
												<Node score="-0.41538465">
													<SimplePredicate field="float(other.installment.plans)" operator="greaterOrEqual" value="0.75"/>
													<Node score="0.06666667">
														<SimplePredicate field="float(age.in.years)" operator="greaterOrEqual" value="0.28571427"/>
													</Node>
												</Node>
												<Node score="-0.15">
													<SimplePredicate field="float(age.in.years)" operator="greaterOrEqual" value="0.8125"/>
												</Node>
											</Node>
											<Node score="-0.3818182">
												<SimplePredicate field="float(savings.account.and.bonds)" operator="greaterOrEqual" value="0.125"/>
											</Node>
											<Node score="0.3">
												<SimplePredicate field="float(installment.rate.in.percentage.of.disposable.income)" operator="greaterOrEqual" value="0.5"/>
											</Node>
										</Node>
										<Node score="0.24000001">
											<SimplePredicate field="float(credit.amount)" operator="greaterOrEqual" value="0.19208759"/>
											<Node score="-0.120000005">
												<SimplePredicate field="float(personal.status.and.sex)" operator="greaterOrEqual" value="0.8333334"/>
											</Node>
										</Node>
									</Node>
									<Node score="0.20000002">
										<SimplePredicate field="float(duration.in.month)" operator="greaterOrEqual" value="0.27205884"/>
										<Node score="0.051428575">
											<SimplePredicate field="float(purpose)" operator="greaterOrEqual" value="0.16666667"/>
											<Node score="-0.0">
												<SimplePredicate field="float(credit.amount)" operator="greaterOrEqual" value="0.43179816"/>
												<Node score="0.45000002">
													<SimplePredicate field="float(credit.history)" operator="greaterOrEqual" value="0.625"/>
												</Node>
												<Node score="-0.15">
													<SimplePredicate field="float(savings.account.and.bonds)" operator="greaterOrEqual" value="0.25"/>
												</Node>
											</Node>
											<Node score="0.34736842">
												<SimplePredicate field="float(duration.in.month)" operator="greaterOrEqual" value="0.49264705"/>
												<Node score="-0.15">
													<SimplePredicate field="float(present.employment.since)" operator="greaterOrEqual" value="0.625"/>
												</Node>
											</Node>
											<Node score="-0.28125">
												<SimplePredicate field="float(credit.amount)" operator="greaterOrEqual" value="0.13915484"/>
											</Node>
										</Node>
										<Node score="0.3">
											<SimplePredicate field="float(savings.account.and.bonds)" operator="greaterOrEqual" value="0.25"/>
											<Node score="-0.36">
												<SimplePredicate field="float(credit.amount)" operator="greaterOrEqual" value="0.06198415"/>
												<Node score="-0.0">
													<SimplePredicate field="float(credit.history)" operator="greaterOrEqual" value="0.625"/>
												</Node>
											</Node>
										</Node>
										<Node score="0.22500001">
											<SimplePredicate field="float(present.residence.since)" operator="greaterOrEqual" value="0.16666667"/>
											<Node score="0.5172414">
												<SimplePredicate field="float(installment.rate.in.percentage.of.disposable.income)" operator="greaterOrEqual" value="0.5"/>
											</Node>
										</Node>
										<Node score="-0.33333337">
											<SimplePredicate field="float(status.of.existing.checking.account)" operator="greaterOrEqual" value="0.16666667"/>
										</Node>
									</Node>
									<Node score="0.16363637">
										<SimplePredicate field="float(credit.history)" operator="greaterOrEqual" value="0.125"/>
										<Node score="-0.24000001">
											<SimplePredicate field="float(duration.in.month)" operator="greaterOrEqual" value="0.11029412"/>
											<Node score="-0.2390244">
												<SimplePredicate field="float(credit.amount)" operator="greaterOrEqual" value="0.038764168"/>
												<Node score="-0.0">
													<SimplePredicate field="float(housing)" operator="greaterOrEqual" value="0.75"/>
												</Node>
											</Node>
											<Node score="0.312">
												<SimplePredicate field="float(credit.amount)" operator="greaterOrEqual" value="0.022724772"/>
											</Node>
										</Node>
										<Node score="-0.04615385">
											<SimplePredicate field="float(job)" operator="greaterOrEqual" value="0.16666667"/>
											<Node score="-0.45000002">
												<SimplePredicate field="float(age.in.years)" operator="greaterOrEqual" value="0.09821428"/>
											</Node>
										</Node>
										<Node score="-0.24000001">
											<SimplePredicate field="float(present.employment.since)" operator="greaterOrEqual" value="0.625"/>
										</Node>
									</Node>
									<Node score="-0.16363637">
										<SimplePredicate field="float(purpose)" operator="greaterOrEqual" value="0.6666667"/>
									</Node>
								</Node>
							</TreeModel>
						</Segment>
						<Segment id="2">
							<True/>
							<TreeModel functionName="regression" noTrueChildStrategy="returnLastPrediction" x-mathContext="float">
								<MiningSchema>
									<MiningField name="float(status.of.existing.checking.account)"/>
									<MiningField name="float(savings.account.and.bonds)"/>
									<MiningField name="float(present.employment.since)"/>
									<MiningField name="float(other.debtors.or.guarantors)"/>
									<MiningField name="float(property)"/>
									<MiningField name="float(other.installment.plans)"/>
									<MiningField name="float(purpose)"/>
									<MiningField name="float(duration.in.month)"/>
									<MiningField name="float(credit.amount)"/>
									<MiningField name="float(age.in.years)"/>
									<MiningField name="float(installment.rate.in.percentage.of.disposable.income)"/>
								</MiningSchema>
								<Node score="-0.30351293">
									<True/>
									<Node score="0.008658425">
										<SimplePredicate field="float(status.of.existing.checking.account)" operator="greaterOrEqual" value="0.8333334"/>
										<Node score="0.08599094">
											<SimplePredicate field="float(other.installment.plans)" operator="greaterOrEqual" value="0.25"/>
											<Node score="-0.42551285">
												<SimplePredicate field="float(age.in.years)" operator="greaterOrEqual" value="0.0625"/>
												<Node score="-0.044155728">
													<SimplePredicate field="float(credit.amount)" operator="greaterOrEqual" value="0.5127655"/>
												</Node>
												<Node score="0.16154085">
													<SimplePredicate field="float(credit.amount)" operator="greaterOrEqual" value="0.21503246"/>
													<Node score="-0.35664195">
														<SimplePredicate field="float(present.employment.since)" operator="greaterOrEqual" value="0.125"/>
													</Node>
												</Node>
											</Node>
											<Node score="-0.31697506">
												<SimplePredicate field="float(savings.account.and.bonds)" operator="greaterOrEqual" value="0.125"/>
											</Node>
										</Node>
										<Node score="-0.32577813">
											<SimplePredicate field="float(purpose)" operator="greaterOrEqual" value="0.61111116"/>
										</Node>
										<Node score="0.051055092">
											<SimplePredicate field="float(credit.amount)" operator="greaterOrEqual" value="0.18807086"/>
											<Node score="0.18513289">
												<SimplePredicate field="float(duration.in.month)" operator="greaterOrEqual" value="0.5588235"/>
											</Node>
										</Node>
										<Node score="-0.28256765">
											<SimplePredicate field="float(savings.account.and.bonds)" operator="greaterOrEqual" value="0.125"/>
										</Node>
									</Node>
									<Node score="0.29539835">
										<SimplePredicate field="float(duration.in.month)" operator="greaterOrEqual" value="0.40441176"/>
										<Node score="0.024329128">
											<SimplePredicate field="float(savings.account.and.bonds)" operator="greaterOrEqual" value="0.875"/>
											<Node score="-0.3830662">
												<SimplePredicate field="float(duration.in.month)" operator="greaterOrEqual" value="0.60294116"/>
											</Node>
										</Node>
										<Node score="-0.3103003">
											<SimplePredicate field="float(present.employment.since)" operator="greaterOrEqual" value="0.875"/>
										</Node>
										<Node score="0.366024">
											<SimplePredicate field="float(duration.in.month)" operator="greaterOrEqual" value="0.6397059"/>
										</Node>
										<Node score="-0.06480592">
											<SimplePredicate field="float(age.in.years)" operator="greaterOrEqual" value="0.1875"/>
										</Node>
									</Node>
									<Node score="0.30776095">
										<SimplePredicate field="float(credit.amount)" operator="greaterOrEqual" value="0.437163"/>
									</Node>
									<Node score="-0.33555102">
										<SimplePredicate field="float(age.in.years)" operator="greaterOrEqual" value="0.27678573"/>
										<Node score="-0.39178714">
											<SimplePredicate field="float(savings.account.and.bonds)" operator="greaterOrEqual" value="0.125"/>
											<Node score="0.03968563">
												<SimplePredicate field="float(property)" operator="greaterOrEqual" value="0.8333334"/>
											</Node>
										</Node>
										<Node score="-0.01057743">
											<SimplePredicate field="float(duration.in.month)" operator="greaterOrEqual" value="0.11029412"/>
										</Node>
									</Node>
									<Node score="-0.36258495">
										<SimplePredicate field="float(credit.amount)" operator="greaterOrEqual" value="0.1619071"/>
										<Node score="0.071874805">
											<SimplePredicate field="float(installment.rate.in.percentage.of.disposable.income)" operator="greaterOrEqual" value="0.5"/>
										</Node>
									</Node>
									<Node score="0.048396852">
										<SimplePredicate field="float(other.debtors.or.guarantors)" operator="greaterOrEqual" value="0.75"/>
									</Node>
								</Node>
							</TreeModel>
						</Segment>
						<Segment id="3">
							<True/>
							<TreeModel functionName="regression" noTrueChildStrategy="returnLastPrediction" x-mathContext="float">
								<MiningSchema>
									<MiningField name="float(status.of.existing.checking.account)"/>
									<MiningField name="float(savings.account.and.bonds)"/>
									<MiningField name="float(present.employment.since)"/>
									<MiningField name="float(personal.status.and.sex)"/>
									<MiningField name="float(other.debtors.or.guarantors)"/>
									<MiningField name="float(property)"/>
									<MiningField name="float(other.installment.plans)"/>
									<MiningField name="float(job)"/>
									<MiningField name="float(purpose)"/>
									<MiningField name="float(duration.in.month)"/>
									<MiningField name="float(credit.amount)"/>
									<MiningField name="float(age.in.years)"/>
									<MiningField name="float(present.residence.since)"/>
									<MiningField name="float(installment.rate.in.percentage.of.disposable.income)"/>
								</MiningSchema>
								<Node score="-0.06728964">
									<True/>
									<Node score="-0.23060326">
										<SimplePredicate field="float(status.of.existing.checking.account)" operator="greaterOrEqual" value="0.8333334"/>
										<Node score="0.15806326">
											<SimplePredicate field="float(present.employment.since)" operator="greaterOrEqual" value="0.875"/>
											<Node score="-0.18049338">
												<SimplePredicate field="float(present.residence.since)" operator="greaterOrEqual" value="0.5"/>
											</Node>
										</Node>
										<Node score="-0.31586087">
											<SimplePredicate field="float(other.installment.plans)" operator="greaterOrEqual" value="0.25"/>
											<Node score="-0.10441845">
												<SimplePredicate field="float(present.employment.since)" operator="greaterOrEqual" value="0.125"/>
												<Node score="-0.36180282">
													<SimplePredicate field="float(age.in.years)" operator="greaterOrEqual" value="0.0625"/>
													<Node score="-0.16630584">
														<SimplePredicate field="float(other.installment.plans)" operator="greaterOrEqual" value="0.75"/>
													</Node>
												</Node>
											</Node>
											<Node score="0.19348416">
												<SimplePredicate field="float(credit.amount)" operator="greaterOrEqual" value="0.23949048"/>
											</Node>
											<Node score="-0.08872876">
												<SimplePredicate field="float(age.in.years)" operator="greaterOrEqual" value="0.39285713"/>
											</Node>
										</Node>
										<Node score="-0.32771865">
											<SimplePredicate field="float(age.in.years)" operator="greaterOrEqual" value="0.45535713"/>
										</Node>
										<Node score="0.25101754">
											<SimplePredicate field="float(credit.amount)" operator="greaterOrEqual" value="0.106773406"/>
											<Node score="-0.05891297">
												<SimplePredicate field="float(purpose)" operator="greaterOrEqual" value="0.16666667"/>
											</Node>
										</Node>
									</Node>
									<Node score="0.25229445">
										<SimplePredicate field="float(property)" operator="greaterOrEqual" value="0.8333334"/>
										<Node score="-0.037679885">
											<SimplePredicate field="float(present.employment.since)" operator="greaterOrEqual" value="0.875"/>
											<Node score="-0.30806863">
												<SimplePredicate field="float(duration.in.month)" operator="greaterOrEqual" value="0.25"/>
											</Node>
										</Node>
										<Node score="0.081213124">
											<SimplePredicate field="float(installment.rate.in.percentage.of.disposable.income)" operator="greaterOrEqual" value="0.5"/>
											<Node score="-0.063924745">
												<SimplePredicate field="float(savings.account.and.bonds)" operator="greaterOrEqual" value="0.75"/>
											</Node>
											<Node score="0.34926265">
												<SimplePredicate field="float(job)" operator="greaterOrEqual" value="0.16666667"/>
											</Node>
										</Node>
										<Node score="-0.30447236">
											<SimplePredicate field="float(installment.rate.in.percentage.of.disposable.income)" operator="greaterOrEqual" value="0.16666667"/>
											<Node score="-0.042081848">
												<SimplePredicate field="float(status.of.existing.checking.account)" operator="greaterOrEqual" value="0.33333334"/>
											</Node>
										</Node>
									</Node>
									<Node score="-0.085952014">
										<SimplePredicate field="float(duration.in.month)" operator="greaterOrEqual" value="0.11029412"/>
										<Node score="0.21447738">
											<SimplePredicate field="float(status.of.existing.checking.account)" operator="greaterOrEqual" value="0.16666667"/>
											<Node score="-0.21462072">
												<SimplePredicate field="float(present.employment.since)" operator="greaterOrEqual" value="0.125"/>
												<Node score="0.13411075">
													<SimplePredicate field="float(credit.amount)" operator="greaterOrEqual" value="0.41317266"/>
												</Node>
											</Node>
											<Node score="-0.2372828">
												<SimplePredicate field="float(age.in.years)" operator="greaterOrEqual" value="0.17857143"/>
											</Node>
										</Node>
										<Node score="-0.36309305">
											<SimplePredicate field="float(purpose)" operator="greaterOrEqual" value="0.5"/>
											<Node score="0.03540422">
												<SimplePredicate field="float(other.debtors.or.guarantors)" operator="greaterOrEqual" value="0.75"/>
											</Node>
										</Node>
										<Node score="0.22861135">
											<SimplePredicate field="float(personal.status.and.sex)" operator="greaterOrEqual" value="0.5"/>
										</Node>
									</Node>
									<Node score="-0.33843103">
										<SimplePredicate field="float(property)" operator="greaterOrEqual" value="0.5"/>
									</Node>
									<Node score="-0.009634599">
										<SimplePredicate field="float(credit.amount)" operator="greaterOrEqual" value="0.041185208"/>
										<Node score="-0.27099633">
											<SimplePredicate field="float(job)" operator="greaterOrEqual" value="0.16666667"/>
										</Node>
									</Node>
									<Node score="0.24489333">
										<SimplePredicate field="float(installment.rate.in.percentage.of.disposable.income)" operator="greaterOrEqual" value="0.8333334"/>
									</Node>
								</Node>
							</TreeModel>
						</Segment>
						<Segment id="4">
							<True/>
							<TreeModel functionName="regression" noTrueChildStrategy="returnLastPrediction" x-mathContext="float">
								<MiningSchema>
									<MiningField name="float(status.of.existing.checking.account)"/>
									<MiningField name="float(credit.history)"/>
									<MiningField name="float(personal.status.and.sex)"/>
									<MiningField name="float(other.debtors.or.guarantors)"/>
									<MiningField name="float(property)"/>
									<MiningField name="float(other.installment.plans)"/>
									<MiningField name="float(telephone)"/>
									<MiningField name="float(purpose)"/>
									<MiningField name="float(duration.in.month)"/>
									<MiningField name="float(credit.amount)"/>
									<MiningField name="float(age.in.years)"/>
									<MiningField name="float(present.residence.since)"/>
									<MiningField name="float(installment.rate.in.percentage.of.disposable.income)"/>
								</MiningSchema>
								<Node score="0.15716241">
									<True/>
									<Node score="-0.26221406">
										<SimplePredicate field="float(status.of.existing.checking.account)" operator="greaterOrEqual" value="0.8333334"/>
										<Node score="0.09307108">
											<SimplePredicate field="float(credit.amount)" operator="greaterOrEqual" value="0.58735"/>
										</Node>
										<Node score="0.20403856">
											<SimplePredicate field="float(purpose)" operator="greaterOrEqual" value="0.055555556"/>
											<Node score="0.027004475">
												<SimplePredicate field="float(other.debtors.or.guarantors)" operator="greaterOrEqual" value="0.25"/>
												<Node score="-0.20574753">
													<SimplePredicate field="float(other.installment.plans)" operator="greaterOrEqual" value="0.25"/>
													<Node score="-0.32741645">
														<SimplePredicate field="float(age.in.years)" operator="greaterOrEqual" value="0.13392857"/>
													</Node>
												</Node>
												<Node score="-0.18034244">
													<SimplePredicate field="float(purpose)" operator="greaterOrEqual" value="0.16666667"/>
												</Node>
											</Node>
											<Node score="-0.21435611">
												<SimplePredicate field="float(credit.amount)" operator="greaterOrEqual" value="0.107406184"/>
											</Node>
										</Node>
										<Node score="0.23432097">
											<SimplePredicate field="float(credit.amount)" operator="greaterOrEqual" value="0.10484758"/>
											<Node score="-0.13532218">
												<SimplePredicate field="float(property)" operator="greaterOrEqual" value="0.5"/>
											</Node>
										</Node>
									</Node>
									<Node score="-0.14886837">
										<SimplePredicate field="float(credit.history)" operator="greaterOrEqual" value="0.875"/>
										<Node score="0.36677167">
											<SimplePredicate field="float(installment.rate.in.percentage.of.disposable.income)" operator="greaterOrEqual" value="0.5"/>
										</Node>
										<Node score="0.22876163">
											<SimplePredicate field="float(present.residence.since)" operator="greaterOrEqual" value="0.8333334"/>
										</Node>
									</Node>
									<Node score="0.2794012">
										<SimplePredicate field="float(duration.in.month)" operator="greaterOrEqual" value="0.16911766"/>
										<Node score="-0.35961977">
											<SimplePredicate field="float(credit.amount)" operator="greaterOrEqual" value="0.113954"/>
											<Node score="-0.12138267">
												<SimplePredicate field="float(personal.status.and.sex)" operator="greaterOrEqual" value="0.16666667"/>
												<Node score="0.12785195">
													<SimplePredicate field="float(credit.amount)" operator="greaterOrEqual" value="0.2099978"/>
												</Node>
											</Node>
											<Node score="-0.08075397">
												<SimplePredicate field="float(duration.in.month)" operator="greaterOrEqual" value="0.31617647"/>
											</Node>
										</Node>
										<Node score="0.16735102">
											<SimplePredicate field="float(age.in.years)" operator="greaterOrEqual" value="0.48214287"/>
											<Node score="-0.2809192">
												<SimplePredicate field="float(purpose)" operator="greaterOrEqual" value="0.3888889"/>
											</Node>
										</Node>
										<Node score="0.007896421">
											<SimplePredicate field="float(telephone)" operator="greaterOrEqual" value="0.5"/>
										</Node>
									</Node>
									<Node score="0.3106943">
										<SimplePredicate field="float(credit.amount)" operator="greaterOrEqual" value="0.25074282"/>
									</Node>
									<Node score="-0.25738758">
										<SimplePredicate field="float(credit.amount)" operator="greaterOrEqual" value="0.039451964"/>
										<Node score="0.084411055">
											<SimplePredicate field="float(property)" operator="greaterOrEqual" value="0.8333334"/>
										</Node>
									</Node>
									<Node score="-0.20303863">
										<SimplePredicate field="float(age.in.years)" operator="greaterOrEqual" value="0.33035713"/>
									</Node>
								</Node>
							</TreeModel>
						</Segment>
						<Segment id="5">
							<True/>
							<TreeModel functionName="regression" noTrueChildStrategy="returnLastPrediction" x-mathContext="float">
								<MiningSchema>
									<MiningField name="float(status.of.existing.checking.account)"/>
									<MiningField name="float(credit.history)"/>
									<MiningField name="float(savings.account.and.bonds)"/>
									<MiningField name="float(personal.status.and.sex)"/>
									<MiningField name="float(other.debtors.or.guarantors)"/>
									<MiningField name="float(property)"/>
									<MiningField name="float(other.installment.plans)"/>
									<MiningField name="float(purpose)"/>
									<MiningField name="float(duration.in.month)"/>
									<MiningField name="float(credit.amount)"/>
									<MiningField name="float(age.in.years)"/>
									<MiningField name="float(present.residence.since)"/>
									<MiningField name="float(number.of.existing.credits.at.this.bank)"/>
									<MiningField name="float(installment.rate.in.percentage.of.disposable.income)"/>
								</MiningSchema>
								<Node score="-0.027247587">
									<True/>
									<Node score="-0.16506624">
										<SimplePredicate field="float(status.of.existing.checking.account)" operator="greaterOrEqual" value="0.8333334"/>
										<Node score="0.26661187">
											<SimplePredicate field="float(credit.amount)" operator="greaterOrEqual" value="0.20034115"/>
											<Node score="-0.2191156">
												<SimplePredicate field="float(purpose)" operator="greaterOrEqual" value="0.16666667"/>
												<Node score="0.012255037">
													<SimplePredicate field="float(age.in.years)" operator="greaterOrEqual" value="0.13392857"/>
													<Node score="-0.32934618">
														<SimplePredicate field="float(personal.status.and.sex)" operator="greaterOrEqual" value="0.33333334"/>
													</Node>
												</Node>
												<Node score="0.3061575">
													<SimplePredicate field="float(number.of.existing.credits.at.this.bank)" operator="greaterOrEqual" value="0.16666667"/>
												</Node>
											</Node>
											<Node score="0.115233146">
												<SimplePredicate field="float(duration.in.month)" operator="greaterOrEqual" value="0.27205884"/>
												<Node score="-0.23323295">
													<SimplePredicate field="float(present.residence.since)" operator="greaterOrEqual" value="0.6666667"/>
												</Node>
											</Node>
										</Node>
										<Node score="-0.048426557">
											<SimplePredicate field="float(age.in.years)" operator="greaterOrEqual" value="0.0625"/>
											<Node score="-0.053019077">
												<SimplePredicate field="float(other.installment.plans)" operator="greaterOrEqual" value="0.75"/>
											</Node>
											<Node score="-0.06816541">
												<SimplePredicate field="float(other.installment.plans)" operator="greaterOrEqual" value="0.25"/>
												<Node score="-0.30303472">
													<SimplePredicate field="float(other.debtors.or.guarantors)" operator="greaterOrEqual" value="0.25"/>
												</Node>
											</Node>
											<Node score="-0.2481272">
												<SimplePredicate field="float(age.in.years)" operator="greaterOrEqual" value="0.40178573"/>
											</Node>
										</Node>
										<Node score="0.17121182">
											<SimplePredicate field="float(installment.rate.in.percentage.of.disposable.income)" operator="greaterOrEqual" value="0.5"/>
										</Node>
									</Node>
									<Node score="0.2814336">
										<SimplePredicate field="float(credit.amount)" operator="greaterOrEqual" value="0.6628425"/>
									</Node>
									<Node score="-0.3386835">
										<SimplePredicate field="float(duration.in.month)" operator="greaterOrEqual" value="0.066176474"/>
										<Node score="-0.09857151">
											<SimplePredicate field="float(credit.amount)" operator="greaterOrEqual" value="0.061874107"/>
											<Node score="0.053554073">
												<SimplePredicate field="float(savings.account.and.bonds)" operator="greaterOrEqual" value="0.125"/>
												<Node score="-0.20626216">
													<SimplePredicate field="float(property)" operator="greaterOrEqual" value="0.16666667"/>
												</Node>
											</Node>
											<Node score="0.04506257">
												<SimplePredicate field="float(personal.status.and.sex)" operator="greaterOrEqual" value="0.16666667"/>
											</Node>
										</Node>
										<Node score="-0.2755112">
											<SimplePredicate field="float(other.debtors.or.guarantors)" operator="greaterOrEqual" value="0.75"/>
											<Node score="0.1817611">
												<SimplePredicate field="float(credit.amount)" operator="greaterOrEqual" value="0.018708043"/>
											</Node>
										</Node>
									</Node>
									<Node score="0.24860749">
										<SimplePredicate field="float(present.residence.since)" operator="greaterOrEqual" value="0.8333334"/>
										<Node score="-0.28650075">
											<SimplePredicate field="float(number.of.existing.credits.at.this.bank)" operator="greaterOrEqual" value="0.16666667"/>
										</Node>
									</Node>
									<Node score="-0.36256665">
										<SimplePredicate field="float(credit.history)" operator="greaterOrEqual" value="0.375"/>
									</Node>
								</Node>
							</TreeModel>
						</Segment>
						<Segment id="6">
							<True/>
							<TreeModel functionName="regression" noTrueChildStrategy="returnLastPrediction" x-mathContext="float">
								<MiningSchema>
									<MiningField name="float(status.of.existing.checking.account)"/>
									<MiningField name="float(credit.history)"/>
									<MiningField name="float(savings.account.and.bonds)"/>
									<MiningField name="float(personal.status.and.sex)"/>
									<MiningField name="float(other.debtors.or.guarantors)"/>
									<MiningField name="float(other.installment.plans)"/>
									<MiningField name="float(job)"/>
									<MiningField name="float(telephone)"/>
									<MiningField name="float(purpose)"/>
									<MiningField name="float(duration.in.month)"/>
									<MiningField name="float(credit.amount)"/>
									<MiningField name="float(age.in.years)"/>
									<MiningField name="float(present.residence.since)"/>
									<MiningField name="float(installment.rate.in.percentage.of.disposable.income)"/>
								</MiningSchema>
								<Node score="-0.10501041">
									<True/>
									<Node score="0.0551327">
										<SimplePredicate field="float(status.of.existing.checking.account)" operator="greaterOrEqual" value="0.8333334"/>
										<Node score="0.20164044">
											<SimplePredicate field="float(credit.amount)" operator="greaterOrEqual" value="0.08550677"/>
											<Node score="-0.16131324">
												<SimplePredicate field="float(credit.amount)" operator="greaterOrEqual" value="0.09219214"/>
												<Node score="0.17611755">
													<SimplePredicate field="float(purpose)" operator="greaterOrEqual" value="0.16666667"/>
													<Node score="-0.015498528">
														<SimplePredicate field="float(age.in.years)" operator="greaterOrEqual" value="0.13392857"/>
														<Node score="-0.29666564">
															<SimplePredicate field="float(installment.rate.in.percentage.of.disposable.income)" operator="greaterOrEqual" value="0.16666667"/>
														</Node>
													</Node>
													<Node score="-0.19511561">
														<SimplePredicate field="float(savings.account.and.bonds)" operator="greaterOrEqual" value="0.125"/>
													</Node>
												</Node>
												<Node score="0.1965666">
													<SimplePredicate field="float(installment.rate.in.percentage.of.disposable.income)" operator="greaterOrEqual" value="0.16666667"/>
													<Node score="-0.059937615">
														<SimplePredicate field="float(duration.in.month)" operator="greaterOrEqual" value="0.27205884"/>
													</Node>
												</Node>
											</Node>
										</Node>
										<Node score="-0.28775647">
											<SimplePredicate field="float(other.debtors.or.guarantors)" operator="greaterOrEqual" value="0.75"/>
										</Node>
									</Node>
									<Node score="-0.107918434">
										<SimplePredicate field="float(credit.history)" operator="greaterOrEqual" value="0.875"/>
										<Node score="-0.11743825">
											<SimplePredicate field="float(other.installment.plans)" operator="greaterOrEqual" value="0.25"/>
											<Node score="0.35867712">
												<SimplePredicate field="float(present.residence.since)" operator="greaterOrEqual" value="0.5"/>
											</Node>
											<Node score="0.1708244">
												<SimplePredicate field="float(telephone)" operator="greaterOrEqual" value="0.5"/>
											</Node>
										</Node>
									</Node>
									<Node score="-0.042779054">
										<SimplePredicate field="float(duration.in.month)" operator="greaterOrEqual" value="0.33088237"/>
										<Node score="-0.19266562">
											<SimplePredicate field="float(age.in.years)" operator="greaterOrEqual" value="0.13392857"/>
											<Node score="-0.06223735">
												<SimplePredicate field="float(credit.history)" operator="greaterOrEqual" value="0.625"/>
												<Node score="0.15808606">
													<SimplePredicate field="float(job)" operator="greaterOrEqual" value="0.16666667"/>
												</Node>
											</Node>
											<Node score="0.17312041">
												<SimplePredicate field="float(age.in.years)" operator="greaterOrEqual" value="0.6696428"/>
											</Node>
										</Node>
										<Node score="0.31274232">
											<SimplePredicate field="float(personal.status.and.sex)" operator="greaterOrEqual" value="0.16666667"/>
										</Node>
										<Node score="0.19295226">
											<SimplePredicate field="float(present.residence.since)" operator="greaterOrEqual" value="0.8333334"/>
										</Node>
									</Node>
									<Node score="0.055741575">
										<SimplePredicate field="float(credit.history)" operator="greaterOrEqual" value="0.125"/>
										<Node score="-0.21624807">
											<SimplePredicate field="float(credit.history)" operator="greaterOrEqual" value="0.625"/>
											<Node score="-0.014104341">
												<SimplePredicate field="float(other.debtors.or.guarantors)" operator="greaterOrEqual" value="0.75"/>
											</Node>
										</Node>
										<Node score="-0.19342282">
											<SimplePredicate field="float(other.debtors.or.guarantors)" operator="greaterOrEqual" value="0.75"/>
										</Node>
									</Node>
									<Node score="0.3295056">
										<SimplePredicate field="float(age.in.years)" operator="greaterOrEqual" value="0.10714286"/>
										<Node score="-0.121658824">
											<SimplePredicate field="float(purpose)" operator="greaterOrEqual" value="0.7222222"/>
										</Node>
									</Node>
								</Node>
							</TreeModel>
						</Segment>
						<Segment id="7">
							<True/>
							<TreeModel functionName="regression" noTrueChildStrategy="returnLastPrediction" x-mathContext="float">
								<MiningSchema>
									<MiningField name="float(status.of.existing.checking.account)"/>
									<MiningField name="float(credit.history)"/>
									<MiningField name="float(personal.status.and.sex)"/>
									<MiningField name="float(property)"/>
									<MiningField name="float(housing)"/>
									<MiningField name="float(job)"/>
									<MiningField name="float(purpose)"/>
									<MiningField name="float(duration.in.month)"/>
									<MiningField name="float(credit.amount)"/>
									<MiningField name="float(age.in.years)"/>
									<MiningField name="float(present.residence.since)"/>
									<MiningField name="float(number.of.existing.credits.at.this.bank)"/>
									<MiningField name="float(installment.rate.in.percentage.of.disposable.income)"/>
								</MiningSchema>
								<Node score="-0.18248391">
									<True/>
									<Node score="0.08643435">
										<SimplePredicate field="float(status.of.existing.checking.account)" operator="greaterOrEqual" value="0.8333334"/>
										<Node score="-0.030825952">
											<SimplePredicate field="float(duration.in.month)" operator="greaterOrEqual" value="0.18382353"/>
											<Node score="0.23013507">
												<SimplePredicate field="float(personal.status.and.sex)" operator="greaterOrEqual" value="0.8333334"/>
												<Node score="0.046158552">
													<SimplePredicate field="float(duration.in.month)" operator="greaterOrEqual" value="0.22058824"/>
													<Node score="-0.29266733">
														<SimplePredicate field="float(age.in.years)" operator="greaterOrEqual" value="0.11607143"/>
														<Node score="-0.07293531">
															<SimplePredicate field="float(credit.amount)" operator="greaterOrEqual" value="0.460438"/>
														</Node>
													</Node>
												</Node>
												<Node score="-0.18492231">
													<SimplePredicate field="float(purpose)" operator="greaterOrEqual" value="0.6666667"/>
												</Node>
											</Node>
											<Node score="0.3215022">
												<SimplePredicate field="float(property)" operator="greaterOrEqual" value="0.16666667"/>
												<Node score="-0.18507384">
													<SimplePredicate field="float(purpose)" operator="greaterOrEqual" value="0.5"/>
													<Node score="0.23255573">
														<SimplePredicate field="float(number.of.existing.credits.at.this.bank)" operator="greaterOrEqual" value="0.16666667"/>
													</Node>
												</Node>
											</Node>
											<Node score="-0.2151681">
												<SimplePredicate field="float(credit.amount)" operator="greaterOrEqual" value="0.16669418"/>
											</Node>
										</Node>
										<Node score="-0.073248714">
											<SimplePredicate field="float(age.in.years)" operator="greaterOrEqual" value="0.13392857"/>
											<Node score="-0.042504486">
												<SimplePredicate field="float(credit.amount)" operator="greaterOrEqual" value="0.1832838"/>
											</Node>
											<Node score="-0.09868926">
												<SimplePredicate field="float(credit.amount)" operator="greaterOrEqual" value="0.026026191"/>
												<Node score="-0.31056163">
													<SimplePredicate field="float(job)" operator="greaterOrEqual" value="0.16666667"/>
												</Node>
											</Node>
										</Node>
										<Node score="-0.24537002">
											<SimplePredicate field="float(present.residence.since)" operator="greaterOrEqual" value="0.5"/>
										</Node>
									</Node>
									<Node score="0.23264502">
										<SimplePredicate field="float(credit.amount)" operator="greaterOrEqual" value="0.6628425"/>
									</Node>
									<Node score="-0.25676724">
										<SimplePredicate field="float(age.in.years)" operator="greaterOrEqual" value="0.27678573"/>
										<Node score="0.18928383">
											<SimplePredicate field="float(credit.history)" operator="greaterOrEqual" value="0.875"/>
										</Node>
										<Node score="0.06318372">
											<SimplePredicate field="float(installment.rate.in.percentage.of.disposable.income)" operator="greaterOrEqual" value="0.8333334"/>
											<Node score="-0.14702907">
												<SimplePredicate field="float(number.of.existing.credits.at.this.bank)" operator="greaterOrEqual" value="0.16666667"/>
											</Node>
										</Node>
										<Node score="-0.074172534">
											<SimplePredicate field="float(personal.status.and.sex)" operator="greaterOrEqual" value="0.5"/>
										</Node>
									</Node>
									<Node score="0.38660422">
										<SimplePredicate field="float(age.in.years)" operator="greaterOrEqual" value="0.24107143"/>
										<Node score="0.17710128">
											<SimplePredicate field="float(status.of.existing.checking.account)" operator="greaterOrEqual" value="0.5"/>
											<Node score="-0.17502236">
												<SimplePredicate field="float(credit.amount)" operator="greaterOrEqual" value="0.1239683"/>
											</Node>
										</Node>
										<Node score="0.11436114">
											<SimplePredicate field="float(duration.in.month)" operator="greaterOrEqual" value="0.27205884"/>
										</Node>
									</Node>
									<Node score="-0.087674744">
										<SimplePredicate field="float(present.residence.since)" operator="greaterOrEqual" value="0.16666667"/>
										<Node score="0.1065746">
											<SimplePredicate field="float(installment.rate.in.percentage.of.disposable.income)" operator="greaterOrEqual" value="0.5"/>
										</Node>
									</Node>
									<Node score="0.17677975">
										<SimplePredicate field="float(housing)" operator="greaterOrEqual" value="0.75"/>
									</Node>
								</Node>
							</TreeModel>
						</Segment>
						<Segment id="8">
							<True/>
							<TreeModel functionName="regression" noTrueChildStrategy="returnLastPrediction" x-mathContext="float">
								<MiningSchema>
									<MiningField name="float(status.of.existing.checking.account)"/>
									<MiningField name="float(credit.history)"/>
									<MiningField name="float(present.employment.since)"/>
									<MiningField name="float(personal.status.and.sex)"/>
									<MiningField name="float(other.debtors.or.guarantors)"/>
									<MiningField name="float(property)"/>
									<MiningField name="float(other.installment.plans)"/>
									<MiningField name="float(housing)"/>
									<MiningField name="float(purpose)"/>
									<MiningField name="float(duration.in.month)"/>
									<MiningField name="float(credit.amount)"/>
									<MiningField name="float(age.in.years)"/>
									<MiningField name="float(present.residence.since)"/>
								</MiningSchema>
								<Node score="-0.13215946">
									<True/>
									<Node score="-0.06586886">
										<SimplePredicate field="float(status.of.existing.checking.account)" operator="greaterOrEqual" value="0.8333334"/>
										<Node score="0.08934128">
											<SimplePredicate field="float(other.installment.plans)" operator="greaterOrEqual" value="0.25"/>
											<Node score="-0.14104047">
												<SimplePredicate field="float(other.debtors.or.guarantors)" operator="greaterOrEqual" value="0.25"/>
												<Node score="0.1554038">
													<SimplePredicate field="float(credit.amount)" operator="greaterOrEqual" value="0.310471"/>
													<Node score="0.07320961">
														<SimplePredicate field="float(age.in.years)" operator="greaterOrEqual" value="0.20535713"/>
														<Node score="-0.23294552">
															<SimplePredicate field="float(duration.in.month)" operator="greaterOrEqual" value="0.33823532"/>
														</Node>
													</Node>
												</Node>
												<Node score="-0.18696141">
													<SimplePredicate field="float(other.installment.plans)" operator="greaterOrEqual" value="0.75"/>
													<Node score="0.16301444">
														<SimplePredicate field="float(age.in.years)" operator="greaterOrEqual" value="0.28571427"/>
													</Node>
												</Node>
												<Node score="-0.27561826">
													<SimplePredicate field="float(age.in.years)" operator="greaterOrEqual" value="0.24107143"/>
												</Node>
											</Node>
										</Node>
										<Node score="0.022012785">
											<SimplePredicate field="float(present.residence.since)" operator="greaterOrEqual" value="0.5"/>
											<Node score="-0.20013167">
												<SimplePredicate field="float(age.in.years)" operator="greaterOrEqual" value="0.40178573"/>
											</Node>
										</Node>
										<Node score="0.17828059">
											<SimplePredicate field="float(personal.status.and.sex)" operator="greaterOrEqual" value="0.5"/>
										</Node>
									</Node>
									<Node score="-0.058801647">
										<SimplePredicate field="float(property)" operator="greaterOrEqual" value="0.8333334"/>
										<Node score="-0.012641091">
											<SimplePredicate field="float(present.employment.since)" operator="greaterOrEqual" value="0.875"/>
											<Node score="-0.23180439">
												<SimplePredicate field="float(duration.in.month)" operator="greaterOrEqual" value="0.25"/>
											</Node>
										</Node>
										<Node score="-0.12983377">
											<SimplePredicate field="float(present.residence.since)" operator="greaterOrEqual" value="0.16666667"/>
											<Node score="0.37383625">
												<SimplePredicate field="float(credit.history)" operator="greaterOrEqual" value="0.375"/>
												<Node score="0.059614323">
													<SimplePredicate field="float(personal.status.and.sex)" operator="greaterOrEqual" value="0.8333334"/>
												</Node>
											</Node>
											<Node score="0.16555005">
												<SimplePredicate field="float(personal.status.and.sex)" operator="greaterOrEqual" value="0.16666667"/>
											</Node>
										</Node>
									</Node>
									<Node score="0.25617054">
										<SimplePredicate field="float(age.in.years)" operator="greaterOrEqual" value="0.33035713"/>
										<Node score="-0.22873347">
											<SimplePredicate field="float(purpose)" operator="greaterOrEqual" value="0.7222222"/>
											<Node score="-0.33526874">
												<SimplePredicate field="float(personal.status.and.sex)" operator="greaterOrEqual" value="0.16666667"/>
											</Node>
											<Node score="0.0491258">
												<SimplePredicate field="float(status.of.existing.checking.account)" operator="greaterOrEqual" value="0.16666667"/>
											</Node>
										</Node>
										<Node score="0.032846447">
											<SimplePredicate field="float(credit.history)" operator="greaterOrEqual" value="0.125"/>
											<Node score="-0.16634618">
												<SimplePredicate field="float(present.employment.since)" operator="greaterOrEqual" value="0.375"/>
											</Node>
										</Node>
									</Node>
									<Node score="-0.3105129">
										<SimplePredicate field="float(credit.amount)" operator="greaterOrEqual" value="0.039451964"/>
										<Node score="-0.015982762">
											<SimplePredicate field="float(duration.in.month)" operator="greaterOrEqual" value="0.15441176"/>
											<Node score="0.13377051">
												<SimplePredicate field="float(housing)" operator="greaterOrEqual" value="0.75"/>
											</Node>
										</Node>
										<Node score="-0.072087854">
											<SimplePredicate field="float(credit.amount)" operator="greaterOrEqual" value="0.05320788"/>
										</Node>
									</Node>
									<Node score="0.33029908">
										<SimplePredicate field="float(age.in.years)" operator="greaterOrEqual" value="0.15178572"/>
									</Node>
									<Node score="0.22043367">
										<SimplePredicate field="float(present.employment.since)" operator="greaterOrEqual" value="0.625"/>
									</Node>
								</Node>
							</TreeModel>
						</Segment>
						<Segment id="9">
							<True/>
							<TreeModel functionName="regression" noTrueChildStrategy="returnLastPrediction" x-mathContext="float">
								<MiningSchema>
									<MiningField name="float(status.of.existing.checking.account)"/>
									<MiningField name="float(credit.history)"/>
									<MiningField name="float(savings.account.and.bonds)"/>
									<MiningField name="float(present.employment.since)"/>
									<MiningField name="float(personal.status.and.sex)"/>
									<MiningField name="float(purpose)"/>
									<MiningField name="float(duration.in.month)"/>
									<MiningField name="float(credit.amount)"/>
									<MiningField name="float(age.in.years)"/>
									<MiningField name="float(present.residence.since)"/>
									<MiningField name="float(number.of.existing.credits.at.this.bank)"/>
									<MiningField name="float(installment.rate.in.percentage.of.disposable.income)"/>
								</MiningSchema>
								<Node score="0.13820404">
									<True/>
									<Node score="-0.13719267">
										<SimplePredicate field="float(savings.account.and.bonds)" operator="greaterOrEqual" value="0.125"/>
										<Node score="0.029003894">
											<SimplePredicate field="float(credit.amount)" operator="greaterOrEqual" value="0.2917905"/>
											<Node score="0.32868266">
												<SimplePredicate field="float(credit.history)" operator="greaterOrEqual" value="0.625"/>
												<Node score="0.056160726">
													<SimplePredicate field="float(credit.amount)" operator="greaterOrEqual" value="0.40530428"/>
													<Node score="-0.15418299">
														<SimplePredicate field="float(duration.in.month)" operator="greaterOrEqual" value="0.49264705"/>
													</Node>
												</Node>
											</Node>
											<Node score="0.115539625">
												<SimplePredicate field="float(age.in.years)" operator="greaterOrEqual" value="0.39285713"/>
											</Node>
											<Node score="-0.28260002">
												<SimplePredicate field="float(duration.in.month)" operator="greaterOrEqual" value="0.34558824"/>
											</Node>
										</Node>
										<Node score="-0.06773834">
											<SimplePredicate field="float(age.in.years)" operator="greaterOrEqual" value="0.38392857"/>
											<Node score="-0.28158855">
												<SimplePredicate field="float(credit.amount)" operator="greaterOrEqual" value="0.033729505"/>
											</Node>
										</Node>
										<Node score="-0.24908096">
											<SimplePredicate field="float(credit.amount)" operator="greaterOrEqual" value="0.06817432"/>
											<Node score="0.24779558">
												<SimplePredicate field="float(number.of.existing.credits.at.this.bank)" operator="greaterOrEqual" value="0.16666667"/>
												<Node score="-0.22856636">
													<SimplePredicate field="float(savings.account.and.bonds)" operator="greaterOrEqual" value="0.875"/>
												</Node>
											</Node>
											<Node score="0.053804945">
												<SimplePredicate field="float(duration.in.month)" operator="greaterOrEqual" value="0.49264705"/>
											</Node>
										</Node>
										<Node score="-0.12890832">
											<SimplePredicate field="float(status.of.existing.checking.account)" operator="greaterOrEqual" value="0.8333334"/>
										</Node>
										<Node score="0.19297291">
											<SimplePredicate field="float(installment.rate.in.percentage.of.disposable.income)" operator="greaterOrEqual" value="0.16666667"/>
										</Node>
									</Node>
									<Node score="0.0632286">
										<SimplePredicate field="float(duration.in.month)" operator="greaterOrEqual" value="0.16911766"/>
										<Node score="-0.3156224">
											<SimplePredicate field="float(purpose)" operator="greaterOrEqual" value="0.16666667"/>
											<Node score="-0.046990875">
												<SimplePredicate field="float(purpose)" operator="greaterOrEqual" value="0.2777778"/>
												<Node score="-0.07200947">
													<SimplePredicate field="float(purpose)" operator="greaterOrEqual" value="0.61111116"/>
													<Node score="0.23218186">
														<SimplePredicate field="float(duration.in.month)" operator="greaterOrEqual" value="0.49264705"/>
													</Node>
												</Node>
												<Node score="0.21554936">
													<SimplePredicate field="float(personal.status.and.sex)" operator="greaterOrEqual" value="0.5"/>
												</Node>
											</Node>
											<Node score="0.108547725">
												<SimplePredicate field="float(credit.amount)" operator="greaterOrEqual" value="0.43639266"/>
											</Node>
										</Node>
										<Node score="0.08887128">
											<SimplePredicate field="float(present.residence.since)" operator="greaterOrEqual" value="0.16666667"/>
											<Node score="0.17813638">
												<SimplePredicate field="float(credit.amount)" operator="greaterOrEqual" value="0.27773193"/>
												<Node score="-0.118983366">
													<SimplePredicate field="float(purpose)" operator="greaterOrEqual" value="0.055555556"/>
												</Node>
											</Node>
											<Node score="0.28882787">
												<SimplePredicate field="float(credit.history)" operator="greaterOrEqual" value="0.375"/>
											</Node>
										</Node>
										<Node score="-0.20305532">
											<SimplePredicate field="float(status.of.existing.checking.account)" operator="greaterOrEqual" value="0.16666667"/>
										</Node>
									</Node>
									<Node score="0.29106402">
										<SimplePredicate field="float(credit.amount)" operator="greaterOrEqual" value="0.20380764"/>
										<Node score="-0.032486867">
											<SimplePredicate field="float(present.employment.since)" operator="greaterOrEqual" value="0.375"/>
										</Node>
									</Node>
									<Node score="0.19235742">
										<SimplePredicate field="float(credit.history)" operator="greaterOrEqual" value="0.125"/>
										<Node score="-0.23396707">
											<SimplePredicate field="float(present.employment.since)" operator="greaterOrEqual" value="0.125"/>
											<Node score="-0.0715534">
												<SimplePredicate field="float(age.in.years)" operator="greaterOrEqual" value="0.15178572"/>
											</Node>
										</Node>
										<Node score="-0.12306484">
											<SimplePredicate field="float(age.in.years)" operator="greaterOrEqual" value="0.11607143"/>
										</Node>
									</Node>
								</Node>
							</TreeModel>
						</Segment>
						<Segment id="10">
							<True/>
							<TreeModel functionName="regression" noTrueChildStrategy="returnLastPrediction" x-mathContext="float">
								<MiningSchema>
									<MiningField name="float(status.of.existing.checking.account)"/>
									<MiningField name="float(credit.history)"/>
									<MiningField name="float(savings.account.and.bonds)"/>
									<MiningField name="float(present.employment.since)"/>
									<MiningField name="float(property)"/>
									<MiningField name="float(housing)"/>
									<MiningField name="float(job)"/>
									<MiningField name="float(purpose)"/>
									<MiningField name="float(duration.in.month)"/>
									<MiningField name="float(credit.amount)"/>
									<MiningField name="float(age.in.years)"/>
									<MiningField name="float(present.residence.since)"/>
									<MiningField name="float(installment.rate.in.percentage.of.disposable.income)"/>
								</MiningSchema>
								<Node score="-0.040457916">
									<True/>
									<Node score="-0.24775772">
										<SimplePredicate field="float(status.of.existing.checking.account)" operator="greaterOrEqual" value="0.8333334"/>
										<Node score="0.07246525">
											<SimplePredicate field="float(present.residence.since)" operator="greaterOrEqual" value="0.5"/>
											<Node score="-0.26111785">
												<SimplePredicate field="float(credit.amount)" operator="greaterOrEqual" value="0.028364696"/>
												<Node score="0.107953124">
													<SimplePredicate field="float(credit.amount)" operator="greaterOrEqual" value="0.33759767"/>
													<Node score="-0.10158131">
														<SimplePredicate field="float(age.in.years)" operator="greaterOrEqual" value="0.25"/>
													</Node>
												</Node>
												<Node score="-0.046922963">
													<SimplePredicate field="float(duration.in.month)" operator="greaterOrEqual" value="0.31617647"/>
												</Node>
												<Node score="-0.040784985">
													<SimplePredicate field="float(credit.amount)" operator="greaterOrEqual" value="0.22730273"/>
												</Node>
											</Node>
										</Node>
										<Node score="0.2551652">
											<SimplePredicate field="float(credit.amount)" operator="greaterOrEqual" value="0.06239683"/>
											<Node score="0.16283533">
												<SimplePredicate field="float(age.in.years)" operator="greaterOrEqual" value="0.13392857"/>
												<Node score="-0.1979652">
													<SimplePredicate field="float(purpose)" operator="greaterOrEqual" value="0.055555556"/>
													<Node score="0.07168364">
														<SimplePredicate field="float(savings.account.and.bonds)" operator="greaterOrEqual" value="0.375"/>
													</Node>
												</Node>
											</Node>
											<Node score="-0.014997866">
												<SimplePredicate field="float(credit.amount)" operator="greaterOrEqual" value="0.11318367"/>
											</Node>
										</Node>
									</Node>
									<Node score="0.29084244">
										<SimplePredicate field="float(present.employment.since)" operator="greaterOrEqual" value="0.625"/>
										<Node score="0.14607126">
											<SimplePredicate field="float(credit.amount)" operator="greaterOrEqual" value="0.060278423"/>
											<Node score="-0.20918189">
												<SimplePredicate field="float(credit.amount)" operator="greaterOrEqual" value="0.25049523"/>
												<Node score="0.2242879">
													<SimplePredicate field="float(housing)" operator="greaterOrEqual" value="0.25"/>
													<Node score="-0.090972945">
														<SimplePredicate field="float(present.residence.since)" operator="greaterOrEqual" value="0.5"/>
													</Node>
												</Node>
											</Node>
											<Node score="-0.3184786">
												<SimplePredicate field="float(credit.amount)" operator="greaterOrEqual" value="0.087955326"/>
												<Node score="-0.116893895">
													<SimplePredicate field="float(duration.in.month)" operator="greaterOrEqual" value="0.33823532"/>
												</Node>
											</Node>
											<Node score="-0.21485035">
												<SimplePredicate field="float(savings.account.and.bonds)" operator="greaterOrEqual" value="0.25"/>
											</Node>
										</Node>
										<Node score="-0.100326456">
											<SimplePredicate field="float(job)" operator="greaterOrEqual" value="0.8333334"/>
										</Node>
									</Node>
									<Node score="-0.23431692">
										<SimplePredicate field="float(property)" operator="greaterOrEqual" value="0.8333334"/>
										<Node score="0.08157255">
											<SimplePredicate field="float(credit.history)" operator="greaterOrEqual" value="0.375"/>
											<Node score="-0.052984495">
												<SimplePredicate field="float(savings.account.and.bonds)" operator="greaterOrEqual" value="0.75"/>
											</Node>
											<Node score="0.32843557">
												<SimplePredicate field="float(present.residence.since)" operator="greaterOrEqual" value="0.5"/>
											</Node>
										</Node>
										<Node score="-0.051674943">
											<SimplePredicate field="float(installment.rate.in.percentage.of.disposable.income)" operator="greaterOrEqual" value="0.8333334"/>
											<Node score="0.27155888">
												<SimplePredicate field="float(purpose)" operator="greaterOrEqual" value="0.33333334"/>
											</Node>
										</Node>
										<Node score="0.01796677">
											<SimplePredicate field="float(status.of.existing.checking.account)" operator="greaterOrEqual" value="0.16666667"/>
										</Node>
									</Node>
									<Node score="0.16220783">
										<SimplePredicate field="float(age.in.years)" operator="greaterOrEqual" value="0.45535713"/>
										<Node score="-0.27961797">
											<SimplePredicate field="float(purpose)" operator="greaterOrEqual" value="0.5"/>
											<Node score="0.030365726">
												<SimplePredicate field="float(age.in.years)" operator="greaterOrEqual" value="0.6875"/>
											</Node>
										</Node>
										<Node score="-0.17489795">
											<SimplePredicate field="float(status.of.existing.checking.account)" operator="greaterOrEqual" value="0.16666667"/>
										</Node>
									</Node>
									<Node score="-0.066052616">
										<SimplePredicate field="float(housing)" operator="greaterOrEqual" value="0.75"/>
										<Node score="0.21521871">
											<SimplePredicate field="float(duration.in.month)" operator="greaterOrEqual" value="0.13970588"/>
										</Node>
									</Node>
									<Node score="0.11924115">
										<SimplePredicate field="float(duration.in.month)" operator="greaterOrEqual" value="0.40441176"/>
									</Node>
								</Node>
							</TreeModel>
						</Segment>
						<Segment id="11">
							<True/>
							<TreeModel functionName="regression" noTrueChildStrategy="returnLastPrediction" x-mathContext="float">
								<MiningSchema>
									<MiningField name="float(status.of.existing.checking.account)"/>
									<MiningField name="float(credit.history)"/>
									<MiningField name="float(savings.account.and.bonds)"/>
									<MiningField name="float(present.employment.since)"/>
									<MiningField name="float(personal.status.and.sex)"/>
									<MiningField name="float(job)"/>
									<MiningField name="float(purpose)"/>
									<MiningField name="float(duration.in.month)"/>
									<MiningField name="float(credit.amount)"/>
									<MiningField name="float(age.in.years)"/>
									<MiningField name="float(present.residence.since)"/>
									<MiningField name="float(installment.rate.in.percentage.of.disposable.income)"/>
								</MiningSchema>
								<Node score="5.697914E-4">
									<True/>
									<Node score="-0.050775524">
										<SimplePredicate field="float(credit.amount)" operator="greaterOrEqual" value="0.5869924"/>
										<Node score="0.24889717">
											<SimplePredicate field="float(credit.history)" operator="greaterOrEqual" value="0.625"/>
										</Node>
									</Node>
									<Node score="-0.053365868">
										<SimplePredicate field="float(status.of.existing.checking.account)" operator="greaterOrEqual" value="0.16666667"/>
										<Node score="-0.21479404">
											<SimplePredicate field="float(present.employment.since)" operator="greaterOrEqual" value="0.125"/>
											<Node score="0.1788645">
												<SimplePredicate field="float(purpose)" operator="greaterOrEqual" value="0.16666667"/>
												<Node score="0.037914917">
													<SimplePredicate field="float(personal.status.and.sex)" operator="greaterOrEqual" value="0.8333334"/>
													<Node score="-0.23515572">
														<SimplePredicate field="float(present.residence.since)" operator="greaterOrEqual" value="0.16666667"/>
													</Node>
												</Node>
												<Node score="-0.08795638">
													<SimplePredicate field="float(duration.in.month)" operator="greaterOrEqual" value="0.080882356"/>
												</Node>
											</Node>
											<Node score="-0.12822312">
												<SimplePredicate field="float(present.residence.since)" operator="greaterOrEqual" value="0.16666667"/>
												<Node score="0.037939932">
													<SimplePredicate field="float(installment.rate.in.percentage.of.disposable.income)" operator="greaterOrEqual" value="0.16666667"/>
												</Node>
											</Node>
										</Node>
										<Node score="-0.020983005">
											<SimplePredicate field="float(credit.amount)" operator="greaterOrEqual" value="0.059453063"/>
											<Node score="-0.26548442">
												<SimplePredicate field="float(age.in.years)" operator="greaterOrEqual" value="0.16964287"/>
												<Node score="0.08902471">
													<SimplePredicate field="float(purpose)" operator="greaterOrEqual" value="0.3888889"/>
												</Node>
											</Node>
											<Node score="0.34096515">
												<SimplePredicate field="float(personal.status.and.sex)" operator="greaterOrEqual" value="0.16666667"/>
											</Node>
										</Node>
										<Node score="0.059483122">
											<SimplePredicate field="float(savings.account.and.bonds)" operator="greaterOrEqual" value="0.125"/>
										</Node>
										<Node score="-0.25658634">
											<SimplePredicate field="float(purpose)" operator="greaterOrEqual" value="0.22222222"/>
										</Node>
									</Node>
									<Node score="-0.25739852">
										<SimplePredicate field="float(job)" operator="greaterOrEqual" value="0.16666667"/>
										<Node score="-0.11464379">
											<SimplePredicate field="float(installment.rate.in.percentage.of.disposable.income)" operator="greaterOrEqual" value="0.5"/>
											<Node score="-0.08922349">
												<SimplePredicate field="float(age.in.years)" operator="greaterOrEqual" value="0.33035713"/>
												<Node score="0.22978102">
													<SimplePredicate field="float(credit.amount)" operator="greaterOrEqual" value="0.19404094"/>
												</Node>
											</Node>
											<Node score="0.19772299">
												<SimplePredicate field="float(age.in.years)" operator="greaterOrEqual" value="0.0625"/>
											</Node>
										</Node>
										<Node score="-0.19150867">
											<SimplePredicate field="float(duration.in.month)" operator="greaterOrEqual" value="0.16911766"/>
											<Node score="0.16229872">
												<SimplePredicate field="float(personal.status.and.sex)" operator="greaterOrEqual" value="0.5"/>
											</Node>
										</Node>
									</Node>
									<Node score="0.14475696">
										<SimplePredicate field="float(savings.account.and.bonds)" operator="greaterOrEqual" value="0.375"/>
									</Node>
									<Node score="-0.10582833">
										<SimplePredicate field="float(duration.in.month)" operator="greaterOrEqual" value="0.16176471"/>
										<Node score="-0.32096422">
											<SimplePredicate field="float(present.residence.since)" operator="greaterOrEqual" value="0.5"/>
										</Node>
									</Node>
								</Node>
							</TreeModel>
						</Segment>
						<Segment id="12">
							<True/>
							<TreeModel functionName="regression" noTrueChildStrategy="returnLastPrediction" x-mathContext="float">
								<MiningSchema>
									<MiningField name="float(credit.history)"/>
									<MiningField name="float(savings.account.and.bonds)"/>
									<MiningField name="float(personal.status.and.sex)"/>
									<MiningField name="float(other.debtors.or.guarantors)"/>
									<MiningField name="float(other.installment.plans)"/>
									<MiningField name="float(job)"/>
									<MiningField name="float(foreign.worker)"/>
									<MiningField name="float(purpose)"/>
									<MiningField name="float(duration.in.month)"/>
									<MiningField name="float(age.in.years)"/>
								</MiningSchema>
								<Node score="-0.066193186">
									<True/>
									<Node score="-0.011022272">
										<SimplePredicate field="float(foreign.worker)" operator="greaterOrEqual" value="0.5"/>
										<Node score="0.29491732">
											<SimplePredicate field="float(other.debtors.or.guarantors)" operator="greaterOrEqual" value="0.25"/>
											<Node score="0.20477319">
												<SimplePredicate field="float(credit.history)" operator="greaterOrEqual" value="0.125"/>
												<Node score="-0.262998">
													<SimplePredicate field="float(credit.history)" operator="greaterOrEqual" value="0.375"/>
													<Node score="0.039642602">
														<SimplePredicate field="float(other.debtors.or.guarantors)" operator="greaterOrEqual" value="0.75"/>
														<Node score="-0.05637738">
															<SimplePredicate field="float(savings.account.and.bonds)" operator="greaterOrEqual" value="0.125"/>
														</Node>
													</Node>
													<Node score="-0.0051091216">
														<SimplePredicate field="float(duration.in.month)" operator="greaterOrEqual" value="0.33823532"/>
													</Node>
												</Node>
												<Node score="-0.20920393">
													<SimplePredicate field="float(other.installment.plans)" operator="greaterOrEqual" value="0.25"/>
													<Node score="-0.06422552">
														<SimplePredicate field="float(purpose)" operator="greaterOrEqual" value="0.3888889"/>
													</Node>
												</Node>
												<Node score="-0.10956498">
													<SimplePredicate field="float(age.in.years)" operator="greaterOrEqual" value="0.3660714"/>
												</Node>
											</Node>
											<Node score="-0.09072608">
												<SimplePredicate field="float(other.installment.plans)" operator="greaterOrEqual" value="0.75"/>
											</Node>
											<Node score="0.019365856">
												<SimplePredicate field="float(purpose)" operator="greaterOrEqual" value="0.7222222"/>
											</Node>
											<Node score="0.10916129">
												<SimplePredicate field="float(personal.status.and.sex)" operator="greaterOrEqual" value="0.8333334"/>
											</Node>
										</Node>
										<Node score="0.2604588">
											<SimplePredicate field="float(credit.history)" operator="greaterOrEqual" value="0.625"/>
										</Node>
									</Node>
									<Node score="-0.24411502">
										<SimplePredicate field="float(job)" operator="greaterOrEqual" value="0.5"/>
									</Node>
								</Node>
							</TreeModel>
						</Segment>
						<Segment id="13">
							<True/>
							<TreeModel functionName="regression" noTrueChildStrategy="returnLastPrediction" x-mathContext="float">
								<MiningSchema>
									<MiningField name="float(status.of.existing.checking.account)"/>
									<MiningField name="float(credit.history)"/>
									<MiningField name="float(present.employment.since)"/>
									<MiningField name="float(personal.status.and.sex)"/>
									<MiningField name="float(property)"/>
									<MiningField name="float(telephone)"/>
									<MiningField name="float(purpose)"/>
									<MiningField name="float(duration.in.month)"/>
									<MiningField name="float(credit.amount)"/>
									<MiningField name="float(age.in.years)"/>
									<MiningField name="float(present.residence.since)"/>
									<MiningField name="float(number.of.existing.credits.at.this.bank)"/>
									<MiningField name="float(installment.rate.in.percentage.of.disposable.income)"/>
									<MiningField name="float(number.of.people.being.liable.to.provide.maintenance.for)"/>
								</MiningSchema>
								<Node score="0.12928271">
									<True/>
									<Node score="0.017911406">
										<SimplePredicate field="float(duration.in.month)" operator="greaterOrEqual" value="0.05147059"/>
										<Node score="0.15029639">
											<SimplePredicate field="float(credit.amount)" operator="greaterOrEqual" value="0.0625619"/>
											<Node score="-0.17993876">
												<SimplePredicate field="float(present.employment.since)" operator="greaterOrEqual" value="0.625"/>
												<Node score="0.0050354996">
													<SimplePredicate field="float(present.residence.since)" operator="greaterOrEqual" value="0.5"/>
													<Node score="-0.11565638">
														<SimplePredicate field="float(credit.history)" operator="greaterOrEqual" value="0.125"/>
														<Node score="-0.27811316">
															<SimplePredicate field="float(status.of.existing.checking.account)" operator="greaterOrEqual" value="0.16666667"/>
														</Node>
													</Node>
												</Node>
												<Node score="0.20951103">
													<SimplePredicate field="float(present.employment.since)" operator="greaterOrEqual" value="0.875"/>
												</Node>
												<Node score="0.056635093">
													<SimplePredicate field="float(duration.in.month)" operator="greaterOrEqual" value="0.33823532"/>
												</Node>
											</Node>
											<Node score="0.1092545">
												<SimplePredicate field="float(credit.amount)" operator="greaterOrEqual" value="0.08380103"/>
												<Node score="0.17451225">
													<SimplePredicate field="float(installment.rate.in.percentage.of.disposable.income)" operator="greaterOrEqual" value="0.8333334"/>
													<Node score="-0.01225828">
														<SimplePredicate field="float(personal.status.and.sex)" operator="greaterOrEqual" value="0.8333334"/>
													</Node>
												</Node>
												<Node score="-0.062050927">
													<SimplePredicate field="float(age.in.years)" operator="greaterOrEqual" value="0.11607143"/>
												</Node>
											</Node>
											<Node score="-0.24172895">
												<SimplePredicate field="float(credit.amount)" operator="greaterOrEqual" value="0.07208099"/>
											</Node>
											<Node score="-0.14194971">
												<SimplePredicate field="float(installment.rate.in.percentage.of.disposable.income)" operator="greaterOrEqual" value="0.8333334"/>
											</Node>
										</Node>
										<Node score="-0.052793648">
											<SimplePredicate field="float(telephone)" operator="greaterOrEqual" value="0.5"/>
											<Node score="0.15022075">
												<SimplePredicate field="float(duration.in.month)" operator="greaterOrEqual" value="0.13970588"/>
												<Node score="-0.07556003">
													<SimplePredicate field="float(duration.in.month)" operator="greaterOrEqual" value="0.25"/>
												</Node>
											</Node>
											<Node score="-0.23259155">
												<SimplePredicate field="float(credit.amount)" operator="greaterOrEqual" value="0.040634975"/>
											</Node>
										</Node>
										<Node score="0.015944012">
											<SimplePredicate field="float(number.of.existing.credits.at.this.bank)" operator="greaterOrEqual" value="0.16666667"/>
											<Node score="0.14905916">
												<SimplePredicate field="float(number.of.people.being.liable.to.provide.maintenance.for)" operator="greaterOrEqual" value="0.5"/>
											</Node>
											<Node score="-0.21488601">
												<SimplePredicate field="float(status.of.existing.checking.account)" operator="greaterOrEqual" value="0.16666667"/>
											</Node>
										</Node>
										<Node score="0.18339457">
											<SimplePredicate field="float(property)" operator="greaterOrEqual" value="0.5"/>
											<Node score="-0.10284998">
												<SimplePredicate field="float(status.of.existing.checking.account)" operator="greaterOrEqual" value="0.5"/>
											</Node>
										</Node>
										<Node score="0.3052444">
											<SimplePredicate field="float(credit.amount)" operator="greaterOrEqual" value="0.025503468"/>
										</Node>
									</Node>
									<Node score="0.18321432">
										<SimplePredicate field="float(credit.amount)" operator="greaterOrEqual" value="0.1723341"/>
									</Node>
									<Node score="-0.26289046">
										<SimplePredicate field="float(property)" operator="greaterOrEqual" value="0.16666667"/>
									</Node>
									<Node score="-0.20748846">
										<SimplePredicate field="float(purpose)" operator="greaterOrEqual" value="0.5"/>
									</Node>
								</Node>
							</TreeModel>
						</Segment>
						<Segment id="14">
							<True/>
							<TreeModel functionName="regression" noTrueChildStrategy="returnLastPrediction" x-mathContext="float">
								<MiningSchema>
									<MiningField name="float(credit.history)"/>
									<MiningField name="float(savings.account.and.bonds)"/>
									<MiningField name="float(other.debtors.or.guarantors)"/>
									<MiningField name="float(other.installment.plans)"/>
									<MiningField name="float(foreign.worker)"/>
									<MiningField name="float(purpose)"/>
									<MiningField name="float(duration.in.month)"/>
									<MiningField name="float(credit.amount)"/>
									<MiningField name="float(installment.rate.in.percentage.of.disposable.income)"/>
								</MiningSchema>
								<Node score="-0.18021792">
									<True/>
									<Node score="0.26478222">
										<SimplePredicate field="float(credit.amount)" operator="greaterOrEqual" value="0.5869924"/>
										<Node score="0.027903007">
											<SimplePredicate field="float(duration.in.month)" operator="greaterOrEqual" value="0.49264705"/>
											<Node score="-0.063428424">
												<SimplePredicate field="float(other.installment.plans)" operator="greaterOrEqual" value="0.25"/>
											</Node>
										</Node>
									</Node>
									<Node score="0.20663022">
										<SimplePredicate field="float(foreign.worker)" operator="greaterOrEqual" value="0.5"/>
										<Node score="0.19804132">
											<SimplePredicate field="float(other.debtors.or.guarantors)" operator="greaterOrEqual" value="0.25"/>
											<Node score="-0.01148694">
												<SimplePredicate field="float(credit.history)" operator="greaterOrEqual" value="0.125"/>
												<Node score="-3.1572237E-4">
													<SimplePredicate field="float(credit.history)" operator="greaterOrEqual" value="0.875"/>
													<Node score="0.23680493">
														<SimplePredicate field="float(installment.rate.in.percentage.of.disposable.income)" operator="greaterOrEqual" value="0.8333334"/>
													</Node>
												</Node>
												<Node score="-0.072180904">
													<SimplePredicate field="float(credit.amount)" operator="greaterOrEqual" value="0.13904479"/>
												</Node>
											</Node>
											<Node score="-0.071218595">
												<SimplePredicate field="float(other.installment.plans)" operator="greaterOrEqual" value="0.75"/>
											</Node>
											<Node score="0.024555651">
												<SimplePredicate field="float(savings.account.and.bonds)" operator="greaterOrEqual" value="0.375"/>
											</Node>
										</Node>
										<Node score="0.0055615315">
											<SimplePredicate field="float(purpose)" operator="greaterOrEqual" value="0.61111116"/>
										</Node>
									</Node>
								</Node>
							</TreeModel>
						</Segment>
						<Segment id="15">
							<True/>
							<TreeModel functionName="regression" noTrueChildStrategy="returnLastPrediction" x-mathContext="float">
								<MiningSchema>
									<MiningField name="float(present.employment.since)"/>
									<MiningField name="float(personal.status.and.sex)"/>
									<MiningField name="float(other.debtors.or.guarantors)"/>
									<MiningField name="float(property)"/>
									<MiningField name="float(job)"/>
									<MiningField name="float(telephone)"/>
									<MiningField name="float(purpose)"/>
									<MiningField name="float(duration.in.month)"/>
									<MiningField name="float(credit.amount)"/>
									<MiningField name="float(age.in.years)"/>
									<MiningField name="float(number.of.people.being.liable.to.provide.maintenance.for)"/>
								</MiningSchema>
								<Node score="-0.21102114">
									<True/>
									<Node score="-0.08441721">
										<SimplePredicate field="float(credit.amount)" operator="greaterOrEqual" value="0.20157918"/>
										<Node score="0.058849666">
											<SimplePredicate field="float(credit.amount)" operator="greaterOrEqual" value="0.2320898"/>
											<Node score="-0.11364212">
												<SimplePredicate field="float(credit.amount)" operator="greaterOrEqual" value="0.251128"/>
												<Node score="0.24778564">
													<SimplePredicate field="float(age.in.years)" operator="greaterOrEqual" value="0.52678573"/>
													<Node score="-0.05252423">
														<SimplePredicate field="float(duration.in.month)" operator="greaterOrEqual" value="0.42647058"/>
													</Node>
												</Node>
												<Node score="0.23958416">
													<SimplePredicate field="float(credit.amount)" operator="greaterOrEqual" value="0.4611258"/>
													<Node score="-0.064869">
														<SimplePredicate field="float(age.in.years)" operator="greaterOrEqual" value="0.1875"/>
													</Node>
												</Node>
												<Node score="0.064597614">
													<SimplePredicate field="float(duration.in.month)" operator="greaterOrEqual" value="0.49264705"/>
												</Node>
											</Node>
											<Node score="-0.24143158">
												<SimplePredicate field="float(present.employment.since)" operator="greaterOrEqual" value="0.125"/>
											</Node>
										</Node>
										<Node score="0.39106023">
											<SimplePredicate field="float(property)" operator="greaterOrEqual" value="0.16666667"/>
											<Node score="-0.03578801">
												<SimplePredicate field="float(personal.status.and.sex)" operator="greaterOrEqual" value="0.16666667"/>
												<Node score="0.1526715">
													<SimplePredicate field="float(age.in.years)" operator="greaterOrEqual" value="0.29464287"/>
												</Node>
											</Node>
										</Node>
									</Node>
									<Node score="-0.21409675">
										<SimplePredicate field="float(credit.amount)" operator="greaterOrEqual" value="0.17277429"/>
										<Node score="-0.3081232">
											<SimplePredicate field="float(personal.status.and.sex)" operator="greaterOrEqual" value="0.16666667"/>
										</Node>
										<Node score="0.11487468">
											<SimplePredicate field="float(age.in.years)" operator="greaterOrEqual" value="0.1607143"/>
										</Node>
									</Node>
									<Node score="-0.060003616">
										<SimplePredicate field="float(duration.in.month)" operator="greaterOrEqual" value="0.16911766"/>
										<Node score="0.085177675">
											<SimplePredicate field="float(telephone)" operator="greaterOrEqual" value="0.5"/>
											<Node score="-0.23680201">
												<SimplePredicate field="float(present.employment.since)" operator="greaterOrEqual" value="0.625"/>
											</Node>
											<Node score="-0.1123558">
												<SimplePredicate field="float(credit.amount)" operator="greaterOrEqual" value="0.12165731"/>
											</Node>
										</Node>
										<Node score="0.11239608">
											<SimplePredicate field="float(number.of.people.being.liable.to.provide.maintenance.for)" operator="greaterOrEqual" value="0.5"/>
											<Node score="0.38234213">
												<SimplePredicate field="float(job)" operator="greaterOrEqual" value="0.5"/>
											</Node>
										</Node>
										<Node score="0.1436314">
											<SimplePredicate field="float(present.employment.since)" operator="greaterOrEqual" value="0.375"/>
										</Node>
									</Node>
									<Node score="-0.23796429">
										<SimplePredicate field="float(other.debtors.or.guarantors)" operator="greaterOrEqual" value="0.75"/>
										<Node score="0.05520676">
											<SimplePredicate field="float(age.in.years)" operator="greaterOrEqual" value="0.08035715"/>
											<Node score="-0.08973135">
												<SimplePredicate field="float(age.in.years)" operator="greaterOrEqual" value="0.33035713"/>
											</Node>
										</Node>
										<Node score="0.020144122">
											<SimplePredicate field="float(purpose)" operator="greaterOrEqual" value="0.6666667"/>
										</Node>
									</Node>
								</Node>
							</TreeModel>
						</Segment>
						<Segment id="16">
							<True/>
							<TreeModel functionName="regression" noTrueChildStrategy="returnLastPrediction" x-mathContext="float">
								<MiningSchema>
									<MiningField name="float(status.of.existing.checking.account)"/>
									<MiningField name="float(present.employment.since)"/>
									<MiningField name="float(property)"/>
									<MiningField name="float(duration.in.month)"/>
									<MiningField name="float(credit.amount)"/>
									<MiningField name="float(age.in.years)"/>
									<MiningField name="float(present.residence.since)"/>
									<MiningField name="float(number.of.existing.credits.at.this.bank)"/>
								</MiningSchema>
								<Node score="-0.19117835">
									<True/>
									<Node score="0.014084495">
										<SimplePredicate field="float(credit.amount)" operator="greaterOrEqual" value="0.009931771"/>
										<Node score="-0.26129928">
											<SimplePredicate field="float(credit.amount)" operator="greaterOrEqual" value="0.039039288"/>
											<Node score="-0.078263804">
												<SimplePredicate field="float(credit.amount)" operator="greaterOrEqual" value="0.05152966"/>
												<Node score="-0.20646621">
													<SimplePredicate field="float(credit.amount)" operator="greaterOrEqual" value="0.05700451"/>
													<Node score="0.017902525">
														<SimplePredicate field="float(credit.amount)" operator="greaterOrEqual" value="0.059453063"/>
														<Node score="-0.076352164">
															<SimplePredicate field="float(present.employment.since)" operator="greaterOrEqual" value="0.625"/>
														</Node>
													</Node>
												</Node>
												<Node score="0.32132906">
													<SimplePredicate field="float(property)" operator="greaterOrEqual" value="0.16666667"/>
													<Node score="0.01327585">
														<SimplePredicate field="float(status.of.existing.checking.account)" operator="greaterOrEqual" value="0.5"/>
													</Node>
												</Node>
											</Node>
											<Node score="0.014834378">
												<SimplePredicate field="float(duration.in.month)" operator="greaterOrEqual" value="0.18382353"/>
											</Node>
											<Node score="-0.066646054">
												<SimplePredicate field="float(age.in.years)" operator="greaterOrEqual" value="0.15178572"/>
											</Node>
										</Node>
										<Node score="0.08732632">
											<SimplePredicate field="float(duration.in.month)" operator="greaterOrEqual" value="0.066176474"/>
											<Node score="0.038751785">
												<SimplePredicate field="float(number.of.existing.credits.at.this.bank)" operator="greaterOrEqual" value="0.16666667"/>
												<Node score="-0.10459937">
													<SimplePredicate field="float(present.residence.since)" operator="greaterOrEqual" value="0.8333334"/>
												</Node>
											</Node>
											<Node score="0.31123367">
												<SimplePredicate field="float(age.in.years)" operator="greaterOrEqual" value="0.13392857"/>
											</Node>
											<Node score="-0.07419269">
												<SimplePredicate field="float(credit.amount)" operator="greaterOrEqual" value="0.02811709"/>
											</Node>
										</Node>
										<Node score="-0.18684901">
											<SimplePredicate field="float(property)" operator="greaterOrEqual" value="0.33333334"/>
										</Node>
									</Node>
								</Node>
							</TreeModel>
						</Segment>
						<Segment id="17">
							<True/>
							<TreeModel functionName="regression" noTrueChildStrategy="returnLastPrediction" x-mathContext="float">
								<MiningSchema>
									<MiningField name="float(credit.history)"/>
									<MiningField name="float(savings.account.and.bonds)"/>
									<MiningField name="float(present.employment.since)"/>
									<MiningField name="float(personal.status.and.sex)"/>
									<MiningField name="float(property)"/>
									<MiningField name="float(job)"/>
									<MiningField name="float(purpose)"/>
									<MiningField name="float(duration.in.month)"/>
									<MiningField name="float(credit.amount)"/>
									<MiningField name="float(age.in.years)"/>
									<MiningField name="float(present.residence.since)"/>
									<MiningField name="float(number.of.existing.credits.at.this.bank)"/>
									<MiningField name="float(number.of.people.being.liable.to.provide.maintenance.for)"/>
								</MiningSchema>
								<Node score="0.1940637">
									<True/>
									<Node score="-0.06798647">
										<SimplePredicate field="float(credit.amount)" operator="greaterOrEqual" value="0.20157918"/>
										<Node score="-0.20981655">
											<SimplePredicate field="float(credit.amount)" operator="greaterOrEqual" value="0.2320898"/>
											<Node score="-0.0020129236">
												<SimplePredicate field="float(present.residence.since)" operator="greaterOrEqual" value="0.8333334"/>
												<Node score="0.029184181">
													<SimplePredicate field="float(present.employment.since)" operator="greaterOrEqual" value="0.625"/>
													<Node score="-0.21172135">
														<SimplePredicate field="float(savings.account.and.bonds)" operator="greaterOrEqual" value="0.25"/>
													</Node>
												</Node>
												<Node score="-0.026002727">
													<SimplePredicate field="float(number.of.people.being.liable.to.provide.maintenance.for)" operator="greaterOrEqual" value="0.5"/>
												</Node>
												<Node score="0.2567136">
													<SimplePredicate field="float(credit.amount)" operator="greaterOrEqual" value="0.32224607"/>
												</Node>
											</Node>
											<Node score="0.07393329">
												<SimplePredicate field="float(credit.amount)" operator="greaterOrEqual" value="0.25068778"/>
												<Node score="-0.1105494">
													<SimplePredicate field="float(purpose)" operator="greaterOrEqual" value="0.5"/>
													<Node score="0.21027046">
														<SimplePredicate field="float(credit.history)" operator="greaterOrEqual" value="0.625"/>
													</Node>
												</Node>
												<Node score="-0.15489495">
													<SimplePredicate field="float(age.in.years)" operator="greaterOrEqual" value="0.16964287"/>
												</Node>
											</Node>
										</Node>
										<Node score="0.32645458">
											<SimplePredicate field="float(property)" operator="greaterOrEqual" value="0.16666667"/>
											<Node score="-0.030335011">
												<SimplePredicate field="float(personal.status.and.sex)" operator="greaterOrEqual" value="0.16666667"/>
												<Node score="0.13076471">
													<SimplePredicate field="float(age.in.years)" operator="greaterOrEqual" value="0.29464287"/>
												</Node>
											</Node>
										</Node>
									</Node>
									<Node score="-0.059082065">
										<SimplePredicate field="float(credit.amount)" operator="greaterOrEqual" value="0.17277429"/>
										<Node score="-0.28205">
											<SimplePredicate field="float(personal.status.and.sex)" operator="greaterOrEqual" value="0.16666667"/>
										</Node>
									</Node>
									<Node score="0.072171785">
										<SimplePredicate field="float(age.in.years)" operator="greaterOrEqual" value="0.45535713"/>
										<Node score="-0.060999993">
											<SimplePredicate field="float(purpose)" operator="greaterOrEqual" value="0.16666667"/>
											<Node score="-0.15009844">
												<SimplePredicate field="float(present.employment.since)" operator="greaterOrEqual" value="0.375"/>
												<Node score="0.07420505">
													<SimplePredicate field="float(property)" operator="greaterOrEqual" value="0.5"/>
												</Node>
											</Node>
											<Node score="-0.27894568">
												<SimplePredicate field="float(duration.in.month)" operator="greaterOrEqual" value="0.13970588"/>
											</Node>
										</Node>
										<Node score="0.20267285">
											<SimplePredicate field="float(duration.in.month)" operator="greaterOrEqual" value="0.27205884"/>
										</Node>
										<Node score="-0.1814381">
											<SimplePredicate field="float(number.of.existing.credits.at.this.bank)" operator="greaterOrEqual" value="0.16666667"/>
										</Node>
									</Node>
									<Node score="0.036698695">
										<SimplePredicate field="float(purpose)" operator="greaterOrEqual" value="0.055555556"/>
